<?xml version="1.0"?>
<opencv_storage>
<stage4>
  <maxWeakCount>5</maxWeakCount>
  <stageThreshold>-7.7741974592208862e-01</stageThreshold>
  <weakClassifiers>
    <_>
      <internalNodes>
        0 -1 23233506 9.1155972331762314e-03</internalNodes>
      <leafValues>
        -5.3995156288146973e-01 7.1824973821640015e-01</leafValues></_>
    <_>
      <internalNodes>
        0 -1 542453 9.5727685838937759e-03</internalNodes>
      <leafValues>
        -7.1777844429016113e-01 6.0577219724655151e-01</leafValues></_>
    <_>
      <internalNodes>
        0 -1 47888576 -4.8216646537184715e-03</internalNodes>
      <leafValues>
        6.3642430305480957e-01 -5.5646526813507080e-01</leafValues></_>
    <_>
      <internalNodes>
        0 -1 18450578 -2.6865764521062374e-03</internalNodes>
      <leafValues>
        3.7571761012077332e-01 -8.8064402341842651e-01</leafValues></_>
    <_>
      <internalNodes>
        0 -1 23133959 -4.4614247977733612e-02</internalNodes>
      <leafValues>
        7.2168147563934326e-01 -5.3183162212371826e-01</leafValues></_></weakClassifiers></stage4>
</opencv_storage>
